digraph Tree {
node [shape=box] ;
0 [label="Dx:Cancer <= 0.5\ngini = 0.24\nsamples = 527\nvalue = [458, 24, 17, 23, 5]"] ;
1 [label="Age <= 0.472\ngini = 0.222\nsamples = 516\nvalue = [454, 21, 16, 21, 4]"] ;
0 -> 1 [labeldistance=2.5, labelangle=45, headlabel="True"] ;
2 [label="IUD (years) <= 0.947\ngini = 0.209\nsamples = 506\nvalue = [449, 20, 14, 19, 4]"] ;
1 -> 2 ;
3 [label="Hormonal Contraceptives (years) <= 0.386\ngini = 0.206\nsamples = 505\nvalue = [449, 19, 14, 19, 4]"] ;
2 -> 3 ;
4 [label="STDs (number) <= 0.125\ngini = 0.185\nsamples = 466\nvalue = [420, 16, 12, 16, 2]"] ;
3 -> 4 ;
5 [label="Age <= 0.12\ngini = 0.163\nsamples = 418\nvalue = [382, 13, 11, 10, 2]"] ;
4 -> 5 ;
6 [label="Dx:CIN <= 0.5\ngini = 0.22\nsamples = 133\nvalue = [117, 9, 4, 3, 0]"] ;
5 -> 6 ;
7 [label="Num of pregnancies <= 0.227\ngini = 0.209\nsamples = 132\nvalue = [117, 8, 4, 3, 0]"] ;
6 -> 7 ;
8 [label="Hormonal Contraceptives (years) <= 0.205\ngini = 0.18\nsamples = 124\nvalue = [112, 7, 3, 2, 0]"] ;
7 -> 8 ;
9 [label="Hormonal Contraceptives (years) <= 0.013\ngini = 0.169\nsamples = 122\nvalue = [111, 6, 3, 2, 0]"] ;
8 -> 9 ;
10 [label="Number of sexual partners <= 0.056\ngini = 0.238\nsamples = 84\nvalue = [73, 6, 3, 2, 0]"] ;
9 -> 10 ;
11 [label="Age <= 0.077\ngini = 0.132\nsamples = 57\nvalue = [53, 3, 1, 0, 0]"] ;
10 -> 11 ;
12 [label="First sexual intercourse <= 0.295\ngini = 0.184\nsamples = 40\nvalue = [36, 3, 1, 0, 0]"] ;
11 -> 12 ;
13 [label="Age <= 0.035\ngini = 0.153\nsamples = 36\nvalue = [33, 3, 0, 0, 0]"] ;
12 -> 13 ;
14 [label="gini = 0.0\nsamples = 9\nvalue = [9, 0, 0, 0, 0]"] ;
13 -> 14 ;
15 [label="First sexual intercourse <= 0.25\ngini = 0.198\nsamples = 27\nvalue = [24, 3, 0, 0, 0]"] ;
13 -> 15 ;
16 [label="Hormonal Contraceptives (years) <= 0.002\ngini = 0.227\nsamples = 23\nvalue = [20, 3, 0, 0, 0]"] ;
15 -> 16 ;
17 [label="Number of sexual partners <= 0.019\ngini = 0.188\nsamples = 19\nvalue = [17, 2, 0, 0, 0]"] ;
16 -> 17 ;
18 [label="gini = 0.0\nsamples = 10\nvalue = [10, 0, 0, 0, 0]"] ;
17 -> 18 ;
19 [label="First sexual intercourse <= 0.205\ngini = 0.346\nsamples = 9\nvalue = [7, 2, 0, 0, 0]"] ;
17 -> 19 ;
20 [label="gini = 0.0\nsamples = 2\nvalue = [2, 0, 0, 0, 0]"] ;
19 -> 20 ;
21 [label="Age <= 0.049\ngini = 0.408\nsamples = 7\nvalue = [5, 2, 0, 0, 0]"] ;
19 -> 21 ;
22 [label="gini = 0.5\nsamples = 2\nvalue = [1, 1, 0, 0, 0]"] ;
21 -> 22 ;
23 [label="Age <= 0.063\ngini = 0.32\nsamples = 5\nvalue = [4, 1, 0, 0, 0]"] ;
21 -> 23 ;
24 [label="gini = 0.0\nsamples = 2\nvalue = [2, 0, 0, 0, 0]"] ;
23 -> 24 ;
25 [label="Num of pregnancies <= 0.136\ngini = 0.444\nsamples = 3\nvalue = [2, 1, 0, 0, 0]"] ;
23 -> 25 ;
26 [label="gini = 0.5\nsamples = 2\nvalue = [1, 1, 0, 0, 0]"] ;
25 -> 26 ;
27 [label="gini = 0.0\nsamples = 1\nvalue = [1, 0, 0, 0, 0]"] ;
25 -> 27 ;
28 [label="First sexual intercourse <= 0.205\ngini = 0.375\nsamples = 4\nvalue = [3, 1, 0, 0, 0]"] ;
16 -> 28 ;
29 [label="gini = 0.0\nsamples = 1\nvalue = [0, 1, 0, 0, 0]"] ;
28 -> 29 ;
30 [label="gini = 0.0\nsamples = 3\nvalue = [3, 0, 0, 0, 0]"] ;
28 -> 30 ;
31 [label="gini = 0.0\nsamples = 4\nvalue = [4, 0, 0, 0, 0]"] ;
15 -> 31 ;
32 [label="Number of sexual partners <= 0.019\ngini = 0.375\nsamples = 4\nvalue = [3, 0, 1, 0, 0]"] ;
12 -> 32 ;
33 [label="gini = 0.0\nsamples = 3\nvalue = [3, 0, 0, 0, 0]"] ;
32 -> 33 ;
34 [label="gini = 0.0\nsamples = 1\nvalue = [0, 0, 1, 0, 0]"] ;
32 -> 34 ;
35 [label="gini = 0.0\nsamples = 17\nvalue = [17, 0, 0, 0, 0]"] ;
11 -> 35 ;
36 [label="Age <= 0.106\ngini = 0.428\nsamples = 27\nvalue = [20, 3, 2, 2, 0]"] ;
10 -> 36 ;
37 [label="First sexual intercourse <= 0.205\ngini = 0.327\nsamples = 21\nvalue = [17, 2, 2, 0, 0]"] ;
36 -> 37 ;
38 [label="Smokes (packs/year) <= 0.015\ngini = 0.611\nsamples = 6\nvalue = [3, 2, 1, 0, 0]"] ;
37 -> 38 ;
39 [label="Age <= 0.077\ngini = 0.625\nsamples = 4\nvalue = [1, 2, 1, 0, 0]"] ;
38 -> 39 ;
40 [label="First sexual intercourse <= 0.159\ngini = 0.444\nsamples = 3\nvalue = [0, 2, 1, 0, 0]"] ;
39 -> 40 ;
41 [label="gini = 0.0\nsamples = 1\nvalue = [0, 0, 1, 0, 0]"] ;
40 -> 41 ;
42 [label="gini = 0.0\nsamples = 2\nvalue = [0, 2, 0, 0, 0]"] ;
40 -> 42 ;
43 [label="gini = 0.0\nsamples = 1\nvalue = [1, 0, 0, 0, 0]"] ;
39 -> 43 ;
44 [label="gini = 0.0\nsamples = 2\nvalue = [2, 0, 0, 0, 0]"] ;
38 -> 44 ;
45 [label="Hormonal Contraceptives (years) <= 0.009\ngini = 0.124\nsamples = 15\nvalue = [14, 0, 1, 0, 0]"] ;
37 -> 45 ;
46 [label="gini = 0.0\nsamples = 12\nvalue = [12, 0, 0, 0, 0]"] ;
45 -> 46 ;
47 [label="First sexual intercourse <= 0.273\ngini = 0.444\nsamples = 3\nvalue = [2, 0, 1, 0, 0]"] ;
45 -> 47 ;
48 [label="gini = 0.0\nsamples = 2\nvalue = [2, 0, 0, 0, 0]"] ;
47 -> 48 ;
49 [label="gini = 0.0\nsamples = 1\nvalue = [0, 0, 1, 0, 0]"] ;
47 -> 49 ;
50 [label="Number of sexual partners <= 0.093\ngini = 0.611\nsamples = 6\nvalue = [3, 1, 0, 2, 0]"] ;
36 -> 50 ;
51 [label="gini = 0.0\nsamples = 1\nvalue = [0, 1, 0, 0, 0]"] ;
50 -> 51 ;
52 [label="Number of sexual partners <= 0.13\ngini = 0.48\nsamples = 5\nvalue = [3, 0, 0, 2, 0]"] ;
50 -> 52 ;
53 [label="Num of pregnancies <= 0.136\ngini = 0.444\nsamples = 3\nvalue = [1, 0, 0, 2, 0]"] ;
52 -> 53 ;
54 [label="gini = 0.0\nsamples = 2\nvalue = [0, 0, 0, 2, 0]"] ;
53 -> 54 ;
55 [label="gini = 0.0\nsamples = 1\nvalue = [1, 0, 0, 0, 0]"] ;
53 -> 55 ;
56 [label="gini = 0.0\nsamples = 2\nvalue = [2, 0, 0, 0, 0]"] ;
52 -> 56 ;
57 [label="gini = 0.0\nsamples = 38\nvalue = [38, 0, 0, 0, 0]"] ;
9 -> 57 ;
58 [label="Num of pregnancies <= 0.136\ngini = 0.5\nsamples = 2\nvalue = [1, 1, 0, 0, 0]"] ;
8 -> 58 ;
59 [label="gini = 0.0\nsamples = 1\nvalue = [0, 1, 0, 0, 0]"] ;
58 -> 59 ;
60 [label="gini = 0.0\nsamples = 1\nvalue = [1, 0, 0, 0, 0]"] ;
58 -> 60 ;
61 [label="Smokes (years) <= 0.112\ngini = 0.562\nsamples = 8\nvalue = [5, 1, 1, 1, 0]"] ;
7 -> 61 ;
62 [label="First sexual intercourse <= 0.25\ngini = 0.449\nsamples = 7\nvalue = [5, 0, 1, 1, 0]"] ;
61 -> 62 ;
63 [label="Hormonal Contraceptives (years) <= 0.04\ngini = 0.625\nsamples = 4\nvalue = [2, 0, 1, 1, 0]"] ;
62 -> 63 ;
64 [label="Age <= 0.099\ngini = 0.444\nsamples = 3\nvalue = [2, 0, 0, 1, 0]"] ;
63 -> 64 ;
65 [label="gini = 0.0\nsamples = 1\nvalue = [0, 0, 0, 1, 0]"] ;
64 -> 65 ;
66 [label="gini = 0.0\nsamples = 2\nvalue = [2, 0, 0, 0, 0]"] ;
64 -> 66 ;
67 [label="gini = 0.0\nsamples = 1\nvalue = [0, 0, 1, 0, 0]"] ;
63 -> 67 ;
68 [label="gini = 0.0\nsamples = 3\nvalue = [3, 0, 0, 0, 0]"] ;
62 -> 68 ;
69 [label="gini = 0.0\nsamples = 1\nvalue = [0, 1, 0, 0, 0]"] ;
61 -> 69 ;
70 [label="gini = 0.0\nsamples = 1\nvalue = [0, 1, 0, 0, 0]"] ;
6 -> 70 ;
71 [label="First sexual intercourse <= 0.841\ngini = 0.134\nsamples = 285\nvalue = [265, 4, 7, 7, 2]"] ;
5 -> 71 ;
72 [label="Num of pregnancies <= 0.5\ngini = 0.129\nsamples = 282\nvalue = [263, 4, 7, 6, 2]"] ;
71 -> 72 ;
73 [label="Age <= 0.444\ngini = 0.12\nsamples = 272\nvalue = [255, 4, 6, 5, 2]"] ;
72 -> 73 ;
74 [label="First sexual intercourse <= 0.432\ngini = 0.114\nsamples = 269\nvalue = [253, 4, 5, 5, 2]"] ;
73 -> 74 ;
75 [label="Age <= 0.359\ngini = 0.139\nsamples = 220\nvalue = [204, 4, 5, 5, 2]"] ;
74 -> 75 ;
76 [label="Smokes (packs/year) <= 0.0\ngini = 0.131\nsamples = 205\nvalue = [191, 2, 5, 5, 2]"] ;
75 -> 76 ;
77 [label="Hormonal Contraceptives (years) <= 0.005\ngini = 0.153\nsamples = 173\nvalue = [159, 2, 5, 5, 2]"] ;
76 -> 77 ;
78 [label="Number of sexual partners <= 0.093\ngini = 0.227\nsamples = 57\nvalue = [50, 2, 2, 1, 2]"] ;
77 -> 78 ;
79 [label="First sexual intercourse <= 0.295\ngini = 0.156\nsamples = 48\nvalue = [44, 2, 0, 0, 2]"] ;
78 -> 79 ;
80 [label="gini = 0.0\nsamples = 19\nvalue = [19, 0, 0, 0, 0]"] ;
79 -> 80 ;
81 [label="Number of sexual partners <= 0.056\ngini = 0.247\nsamples = 29\nvalue = [25, 2, 0, 0, 2]"] ;
79 -> 81 ;
82 [label="Age <= 0.169\ngini = 0.18\nsamples = 20\nvalue = [18, 2, 0, 0, 0]"] ;
81 -> 82 ;
83 [label="Num of pregnancies <= 0.136\ngini = 0.346\nsamples = 9\nvalue = [7, 2, 0, 0, 0]"] ;
82 -> 83 ;
84 [label="First sexual intercourse <= 0.341\ngini = 0.444\nsamples = 6\nvalue = [4, 2, 0, 0, 0]"] ;
83 -> 84 ;
85 [label="gini = 0.0\nsamples = 1\nvalue = [0, 1, 0, 0, 0]"] ;
84 -> 85 ;
86 [label="Age <= 0.148\ngini = 0.32\nsamples = 5\nvalue = [4, 1, 0, 0, 0]"] ;
84 -> 86 ;
87 [label="Number of sexual partners <= 0.019\ngini = 0.444\nsamples = 3\nvalue = [2, 1, 0, 0, 0]"] ;
86 -> 87 ;
88 [label="gini = 0.0\nsamples = 1\nvalue = [1, 0, 0, 0, 0]"] ;
87 -> 88 ;
89 [label="First sexual intercourse <= 0.386\ngini = 0.5\nsamples = 2\nvalue = [1, 1, 0, 0, 0]"] ;
87 -> 89 ;
90 [label="gini = 0.0\nsamples = 1\nvalue = [1, 0, 0, 0, 0]"] ;
89 -> 90 ;
91 [label="gini = 0.0\nsamples = 1\nvalue = [0, 1, 0, 0, 0]"] ;
89 -> 91 ;
92 [label="gini = 0.0\nsamples = 2\nvalue = [2, 0, 0, 0, 0]"] ;
86 -> 92 ;
93 [label="gini = 0.0\nsamples = 3\nvalue = [3, 0, 0, 0, 0]"] ;
83 -> 93 ;
94 [label="gini = 0.0\nsamples = 11\nvalue = [11, 0, 0, 0, 0]"] ;
82 -> 94 ;
95 [label="Num of pregnancies <= 0.227\ngini = 0.346\nsamples = 9\nvalue = [7, 0, 0, 0, 2]"] ;
81 -> 95 ;
96 [label="Num of pregnancies <= 0.136\ngini = 0.48\nsamples = 5\nvalue = [3, 0, 0, 0, 2]"] ;
95 -> 96 ;
97 [label="gini = 0.0\nsamples = 2\nvalue = [2, 0, 0, 0, 0]"] ;
96 -> 97 ;
98 [label="First sexual intercourse <= 0.341\ngini = 0.444\nsamples = 3\nvalue = [1, 0, 0, 0, 2]"] ;
96 -> 98 ;
99 [label="Hormonal Contraceptives (years) <= 0.002\ngini = 0.5\nsamples = 2\nvalue = [1, 0, 0, 0, 1]"] ;
98 -> 99 ;
100 [label="gini = 0.0\nsamples = 1\nvalue = [1, 0, 0, 0, 0]"] ;
99 -> 100 ;
101 [label="gini = 0.0\nsamples = 1\nvalue = [0, 0, 0, 0, 1]"] ;
99 -> 101 ;
102 [label="gini = 0.0\nsamples = 1\nvalue = [0, 0, 0, 0, 1]"] ;
98 -> 102 ;
103 [label="gini = 0.0\nsamples = 4\nvalue = [4, 0, 0, 0, 0]"] ;
95 -> 103 ;
104 [label="First sexual intercourse <= 0.341\ngini = 0.494\nsamples = 9\nvalue = [6, 0, 2, 1, 0]"] ;
78 -> 104 ;
105 [label="First sexual intercourse <= 0.25\ngini = 0.278\nsamples = 6\nvalue = [5, 0, 0, 1, 0]"] ;
104 -> 105 ;
106 [label="Age <= 0.261\ngini = 0.5\nsamples = 2\nvalue = [1, 0, 0, 1, 0]"] ;
105 -> 106 ;
107 [label="gini = 0.0\nsamples = 1\nvalue = [0, 0, 0, 1, 0]"] ;
106 -> 107 ;
108 [label="gini = 0.0\nsamples = 1\nvalue = [1, 0, 0, 0, 0]"] ;
106 -> 108 ;
109 [label="gini = 0.0\nsamples = 4\nvalue = [4, 0, 0, 0, 0]"] ;
105 -> 109 ;
110 [label="Age <= 0.204\ngini = 0.444\nsamples = 3\nvalue = [1, 0, 2, 0, 0]"] ;
104 -> 110 ;
111 [label="gini = 0.0\nsamples = 1\nvalue = [1, 0, 0, 0, 0]"] ;
110 -> 111 ;
112 [label="gini = 0.0\nsamples = 2\nvalue = [0, 0, 2, 0, 0]"] ;
110 -> 112 ;
113 [label="Number of sexual partners <= 0.019\ngini = 0.115\nsamples = 116\nvalue = [109, 0, 3, 4, 0]"] ;
77 -> 113 ;
114 [label="Age <= 0.148\ngini = 0.218\nsamples = 25\nvalue = [22, 0, 2, 1, 0]"] ;
113 -> 114 ;
115 [label="Hormonal Contraceptives (years) <= 0.017\ngini = 0.346\nsamples = 9\nvalue = [7, 0, 2, 0, 0]"] ;
114 -> 115 ;
116 [label="gini = 0.0\nsamples = 4\nvalue = [4, 0, 0, 0, 0]"] ;
115 -> 116 ;
117 [label="First sexual intercourse <= 0.341\ngini = 0.48\nsamples = 5\nvalue = [3, 0, 2, 0, 0]"] ;
115 -> 117 ;
118 [label="gini = 0.0\nsamples = 2\nvalue = [0, 0, 2, 0, 0]"] ;
117 -> 118 ;
119 [label="gini = 0.0\nsamples = 3\nvalue = [3, 0, 0, 0, 0]"] ;
117 -> 119 ;
120 [label="Age <= 0.218\ngini = 0.117\nsamples = 16\nvalue = [15, 0, 0, 1, 0]"] ;
114 -> 120 ;
121 [label="gini = 0.0\nsamples = 10\nvalue = [10, 0, 0, 0, 0]"] ;
120 -> 121 ;
122 [label="Hormonal Contraceptives (years) <= 0.136\ngini = 0.278\nsamples = 6\nvalue = [5, 0, 0, 1, 0]"] ;
120 -> 122 ;
123 [label="gini = 0.0\nsamples = 5\nvalue = [5, 0, 0, 0, 0]"] ;
122 -> 123 ;
124 [label="gini = 0.0\nsamples = 1\nvalue = [0, 0, 0, 1, 0]"] ;
122 -> 124 ;
125 [label="IUD (years) <= 0.037\ngini = 0.085\nsamples = 91\nvalue = [87, 0, 1, 3, 0]"] ;
113 -> 125 ;
126 [label="Age <= 0.303\ngini = 0.07\nsamples = 82\nvalue = [79, 0, 0, 3, 0]"] ;
125 -> 126 ;
127 [label="First sexual intercourse <= 0.386\ngini = 0.053\nsamples = 74\nvalue = [72, 0, 0, 2, 0]"] ;
126 -> 127 ;
128 [label="Hormonal Contraceptives (years) <= 0.017\ngini = 0.029\nsamples = 67\nvalue = [66, 0, 0, 1, 0]"] ;
127 -> 128 ;
129 [label="Hormonal Contraceptives (years) <= 0.013\ngini = 0.198\nsamples = 9\nvalue = [8, 0, 0, 1, 0]"] ;
128 -> 129 ;
130 [label="gini = 0.0\nsamples = 7\nvalue = [7, 0, 0, 0, 0]"] ;
129 -> 130 ;
131 [label="First sexual intercourse <= 0.273\ngini = 0.5\nsamples = 2\nvalue = [1, 0, 0, 1, 0]"] ;
129 -> 131 ;
132 [label="gini = 0.0\nsamples = 1\nvalue = [0, 0, 0, 1, 0]"] ;
131 -> 132 ;
133 [label="gini = 0.0\nsamples = 1\nvalue = [1, 0, 0, 0, 0]"] ;
131 -> 133 ;
134 [label="gini = 0.0\nsamples = 58\nvalue = [58, 0, 0, 0, 0]"] ;
128 -> 134 ;
135 [label="Number of sexual partners <= 0.056\ngini = 0.245\nsamples = 7\nvalue = [6, 0, 0, 1, 0]"] ;
127 -> 135 ;
136 [label="gini = 0.0\nsamples = 5\nvalue = [5, 0, 0, 0, 0]"] ;
135 -> 136 ;
137 [label="Age <= 0.239\ngini = 0.5\nsamples = 2\nvalue = [1, 0, 0, 1, 0]"] ;
135 -> 137 ;
138 [label="gini = 0.0\nsamples = 1\nvalue = [0, 0, 0, 1, 0]"] ;
137 -> 138 ;
139 [label="gini = 0.0\nsamples = 1\nvalue = [1, 0, 0, 0, 0]"] ;
137 -> 139 ;
140 [label="First sexual intercourse <= 0.341\ngini = 0.219\nsamples = 8\nvalue = [7, 0, 0, 1, 0]"] ;
126 -> 140 ;
141 [label="Age <= 0.317\ngini = 0.444\nsamples = 3\nvalue = [2, 0, 0, 1, 0]"] ;
140 -> 141 ;
142 [label="gini = 0.0\nsamples = 1\nvalue = [0, 0, 0, 1, 0]"] ;
141 -> 142 ;
143 [label="gini = 0.0\nsamples = 2\nvalue = [2, 0, 0, 0, 0]"] ;
141 -> 143 ;
144 [label="gini = 0.0\nsamples = 5\nvalue = [5, 0, 0, 0, 0]"] ;
140 -> 144 ;
145 [label="IUD (years) <= 0.05\ngini = 0.198\nsamples = 9\nvalue = [8, 0, 1, 0, 0]"] ;
125 -> 145 ;
146 [label="gini = 0.0\nsamples = 1\nvalue = [0, 0, 1, 0, 0]"] ;
145 -> 146 ;
147 [label="gini = 0.0\nsamples = 8\nvalue = [8, 0, 0, 0, 0]"] ;
145 -> 147 ;
148 [label="gini = 0.0\nsamples = 32\nvalue = [32, 0, 0, 0, 0]"] ;
76 -> 148 ;
149 [label="Number of sexual partners <= 0.019\ngini = 0.231\nsamples = 15\nvalue = [13, 2, 0, 0, 0]"] ;
75 -> 149 ;
150 [label="gini = 0.0\nsamples = 1\nvalue = [0, 1, 0, 0, 0]"] ;
149 -> 150 ;
151 [label="Smokes (years) <= 0.085\ngini = 0.133\nsamples = 14\nvalue = [13, 1, 0, 0, 0]"] ;
149 -> 151 ;
152 [label="gini = 0.0\nsamples = 12\nvalue = [12, 0, 0, 0, 0]"] ;
151 -> 152 ;
153 [label="Smokes (years) <= 0.446\ngini = 0.5\nsamples = 2\nvalue = [1, 1, 0, 0, 0]"] ;
151 -> 153 ;
154 [label="gini = 0.0\nsamples = 1\nvalue = [0, 1, 0, 0, 0]"] ;
153 -> 154 ;
155 [label="gini = 0.0\nsamples = 1\nvalue = [1, 0, 0, 0, 0]"] ;
153 -> 155 ;
156 [label="gini = 0.0\nsamples = 49\nvalue = [49, 0, 0, 0, 0]"] ;
74 -> 156 ;
157 [label="Hormonal Contraceptives (years) <= 0.136\ngini = 0.444\nsamples = 3\nvalue = [2, 0, 1, 0, 0]"] ;
73 -> 157 ;
158 [label="gini = 0.0\nsamples = 1\nvalue = [0, 0, 1, 0, 0]"] ;
157 -> 158 ;
159 [label="gini = 0.0\nsamples = 2\nvalue = [2, 0, 0, 0, 0]"] ;
157 -> 159 ;
160 [label="First sexual intercourse <= 0.432\ngini = 0.34\nsamples = 10\nvalue = [8, 0, 1, 1, 0]"] ;
72 -> 160 ;
161 [label="First sexual intercourse <= 0.341\ngini = 0.198\nsamples = 9\nvalue = [8, 0, 0, 1, 0]"] ;
160 -> 161 ;
162 [label="gini = 0.0\nsamples = 6\nvalue = [6, 0, 0, 0, 0]"] ;
161 -> 162 ;
163 [label="Age <= 0.261\ngini = 0.444\nsamples = 3\nvalue = [2, 0, 0, 1, 0]"] ;
161 -> 163 ;
164 [label="gini = 0.0\nsamples = 2\nvalue = [2, 0, 0, 0, 0]"] ;
163 -> 164 ;
165 [label="gini = 0.0\nsamples = 1\nvalue = [0, 0, 0, 1, 0]"] ;
163 -> 165 ;
166 [label="gini = 0.0\nsamples = 1\nvalue = [0, 0, 1, 0, 0]"] ;
160 -> 166 ;
167 [label="Num of pregnancies <= 0.091\ngini = 0.444\nsamples = 3\nvalue = [2, 0, 0, 1, 0]"] ;
71 -> 167 ;
168 [label="gini = 0.0\nsamples = 1\nvalue = [1, 0, 0, 0, 0]"] ;
167 -> 168 ;
169 [label="First sexual intercourse <= 0.932\ngini = 0.5\nsamples = 2\nvalue = [1, 0, 0, 1, 0]"] ;
167 -> 169 ;
170 [label="gini = 0.0\nsamples = 1\nvalue = [0, 0, 0, 1, 0]"] ;
169 -> 170 ;
171 [label="gini = 0.0\nsamples = 1\nvalue = [1, 0, 0, 0, 0]"] ;
169 -> 171 ;
172 [label="Dx:CIN <= 0.5\ngini = 0.353\nsamples = 48\nvalue = [38, 3, 1, 6, 0]"] ;
4 -> 172 ;
173 [label="Smokes (years) <= 0.216\ngini = 0.326\nsamples = 47\nvalue = [38, 3, 0, 6, 0]"] ;
172 -> 173 ;
174 [label="First sexual intercourse <= 0.341\ngini = 0.251\nsamples = 42\nvalue = [36, 1, 0, 5, 0]"] ;
173 -> 174 ;
175 [label="IUD (years) <= 0.237\ngini = 0.131\nsamples = 29\nvalue = [27, 1, 0, 1, 0]"] ;
174 -> 175 ;
176 [label="STDs: Number of diagnosis <= 0.167\ngini = 0.069\nsamples = 28\nvalue = [27, 0, 0, 1, 0]"] ;
175 -> 176 ;
177 [label="STDs (number) <= 0.375\ngini = 0.5\nsamples = 2\nvalue = [1, 0, 0, 1, 0]"] ;
176 -> 177 ;
178 [label="gini = 0.0\nsamples = 1\nvalue = [1, 0, 0, 0, 0]"] ;
177 -> 178 ;
179 [label="gini = 0.0\nsamples = 1\nvalue = [0, 0, 0, 1, 0]"] ;
177 -> 179 ;
180 [label="gini = 0.0\nsamples = 26\nvalue = [26, 0, 0, 0, 0]"] ;
176 -> 180 ;
181 [label="gini = 0.0\nsamples = 1\nvalue = [0, 1, 0, 0, 0]"] ;
175 -> 181 ;
182 [label="Age <= 0.218\ngini = 0.426\nsamples = 13\nvalue = [9, 0, 0, 4, 0]"] ;
174 -> 182 ;
183 [label="Age <= 0.127\ngini = 0.375\nsamples = 4\nvalue = [1, 0, 0, 3, 0]"] ;
182 -> 183 ;
184 [label="gini = 0.0\nsamples = 1\nvalue = [1, 0, 0, 0, 0]"] ;
183 -> 184 ;
185 [label="gini = 0.0\nsamples = 3\nvalue = [0, 0, 0, 3, 0]"] ;
183 -> 185 ;
186 [label="Num of pregnancies <= 0.136\ngini = 0.198\nsamples = 9\nvalue = [8, 0, 0, 1, 0]"] ;
182 -> 186 ;
187 [label="gini = 0.0\nsamples = 1\nvalue = [0, 0, 0, 1, 0]"] ;
186 -> 187 ;
188 [label="gini = 0.0\nsamples = 8\nvalue = [8, 0, 0, 0, 0]"] ;
186 -> 188 ;
189 [label="Smokes (packs/year) <= 0.1\ngini = 0.64\nsamples = 5\nvalue = [2, 2, 0, 1, 0]"] ;
173 -> 189 ;
190 [label="Hormonal Contraceptives (years) <= 0.091\ngini = 0.444\nsamples = 3\nvalue = [0, 2, 0, 1, 0]"] ;
189 -> 190 ;
191 [label="gini = 0.0\nsamples = 1\nvalue = [0, 0, 0, 1, 0]"] ;
190 -> 191 ;
192 [label="gini = 0.0\nsamples = 2\nvalue = [0, 2, 0, 0, 0]"] ;
190 -> 192 ;
193 [label="gini = 0.0\nsamples = 2\nvalue = [2, 0, 0, 0, 0]"] ;
189 -> 193 ;
194 [label="gini = 0.0\nsamples = 1\nvalue = [0, 0, 1, 0, 0]"] ;
172 -> 194 ;
195 [label="IUD (years) <= 0.068\ngini = 0.43\nsamples = 39\nvalue = [29, 3, 2, 3, 2]"] ;
3 -> 195 ;
196 [label="Smokes (years) <= 0.284\ngini = 0.313\nsamples = 34\nvalue = [28, 2, 1, 2, 1]"] ;
195 -> 196 ;
197 [label="Age <= 0.113\ngini = 0.227\nsamples = 32\nvalue = [28, 2, 0, 2, 0]"] ;
196 -> 197 ;
198 [label="gini = 0.0\nsamples = 1\nvalue = [0, 0, 0, 1, 0]"] ;
197 -> 198 ;
199 [label="Smokes (packs/year) <= 0.019\ngini = 0.179\nsamples = 31\nvalue = [28, 2, 0, 1, 0]"] ;
197 -> 199 ;
200 [label="Hormonal Contraceptives (years) <= 0.773\ngini = 0.131\nsamples = 29\nvalue = [27, 1, 0, 1, 0]"] ;
199 -> 200 ;
201 [label="Age <= 0.218\ngini = 0.077\nsamples = 25\nvalue = [24, 0, 0, 1, 0]"] ;
200 -> 201 ;
202 [label="Age <= 0.19\ngini = 0.32\nsamples = 5\nvalue = [4, 0, 0, 1, 0]"] ;
201 -> 202 ;
203 [label="gini = 0.0\nsamples = 4\nvalue = [4, 0, 0, 0, 0]"] ;
202 -> 203 ;
204 [label="gini = 0.0\nsamples = 1\nvalue = [0, 0, 0, 1, 0]"] ;
202 -> 204 ;
205 [label="gini = 0.0\nsamples = 20\nvalue = [20, 0, 0, 0, 0]"] ;
201 -> 205 ;
206 [label="Hormonal Contraceptives (years) <= 0.886\ngini = 0.375\nsamples = 4\nvalue = [3, 1, 0, 0, 0]"] ;
200 -> 206 ;
207 [label="gini = 0.0\nsamples = 1\nvalue = [0, 1, 0, 0, 0]"] ;
206 -> 207 ;
208 [label="gini = 0.0\nsamples = 3\nvalue = [3, 0, 0, 0, 0]"] ;
206 -> 208 ;
209 [label="Smokes (packs/year) <= 0.049\ngini = 0.5\nsamples = 2\nvalue = [1, 1, 0, 0, 0]"] ;
199 -> 209 ;
210 [label="gini = 0.0\nsamples = 1\nvalue = [0, 1, 0, 0, 0]"] ;
209 -> 210 ;
211 [label="gini = 0.0\nsamples = 1\nvalue = [1, 0, 0, 0, 0]"] ;
209 -> 211 ;
212 [label="Smokes (packs/year) <= 0.284\ngini = 0.5\nsamples = 2\nvalue = [0, 0, 1, 0, 1]"] ;
196 -> 212 ;
213 [label="gini = 0.0\nsamples = 1\nvalue = [0, 0, 1, 0, 0]"] ;
212 -> 213 ;
214 [label="gini = 0.0\nsamples = 1\nvalue = [0, 0, 0, 0, 1]"] ;
212 -> 214 ;
215 [label="STDs: Number of diagnosis <= 0.167\ngini = 0.8\nsamples = 5\nvalue = [1, 1, 1, 1, 1]"] ;
195 -> 215 ;
216 [label="Num of pregnancies <= 0.227\ngini = 0.75\nsamples = 4\nvalue = [1, 0, 1, 1, 1]"] ;
215 -> 216 ;
217 [label="gini = 0.0\nsamples = 1\nvalue = [1, 0, 0, 0, 0]"] ;
216 -> 217 ;
218 [label="Num of pregnancies <= 0.318\ngini = 0.667\nsamples = 3\nvalue = [0, 0, 1, 1, 1]"] ;
216 -> 218 ;
219 [label="gini = 0.0\nsamples = 1\nvalue = [0, 0, 1, 0, 0]"] ;
218 -> 219 ;
220 [label="IUD (years) <= 0.132\ngini = 0.5\nsamples = 2\nvalue = [0, 0, 0, 1, 1]"] ;
218 -> 220 ;
221 [label="gini = 0.0\nsamples = 1\nvalue = [0, 0, 0, 1, 0]"] ;
220 -> 221 ;
222 [label="gini = 0.0\nsamples = 1\nvalue = [0, 0, 0, 0, 1]"] ;
220 -> 222 ;
223 [label="gini = 0.0\nsamples = 1\nvalue = [0, 1, 0, 0, 0]"] ;
215 -> 223 ;
224 [label="gini = 0.0\nsamples = 1\nvalue = [0, 1, 0, 0, 0]"] ;
2 -> 224 ;
225 [label="First sexual intercourse <= 0.295\ngini = 0.66\nsamples = 10\nvalue = [5, 1, 2, 2, 0]"] ;
1 -> 225 ;
226 [label="Hormonal Contraceptives (years) <= 0.386\ngini = 0.32\nsamples = 5\nvalue = [4, 0, 1, 0, 0]"] ;
225 -> 226 ;
227 [label="gini = 0.0\nsamples = 4\nvalue = [4, 0, 0, 0, 0]"] ;
226 -> 227 ;
228 [label="gini = 0.0\nsamples = 1\nvalue = [0, 0, 1, 0, 0]"] ;
226 -> 228 ;
229 [label="First sexual intercourse <= 0.364\ngini = 0.72\nsamples = 5\nvalue = [1, 1, 1, 2, 0]"] ;
225 -> 229 ;
230 [label="Num of pregnancies <= 0.591\ngini = 0.444\nsamples = 3\nvalue = [1, 0, 0, 2, 0]"] ;
229 -> 230 ;
231 [label="gini = 0.0\nsamples = 2\nvalue = [0, 0, 0, 2, 0]"] ;
230 -> 231 ;
232 [label="gini = 0.0\nsamples = 1\nvalue = [1, 0, 0, 0, 0]"] ;
230 -> 232 ;
233 [label="IUD (years) <= 0.289\ngini = 0.5\nsamples = 2\nvalue = [0, 1, 1, 0, 0]"] ;
229 -> 233 ;
234 [label="gini = 0.0\nsamples = 1\nvalue = [0, 1, 0, 0, 0]"] ;
233 -> 234 ;
235 [label="gini = 0.0\nsamples = 1\nvalue = [0, 0, 1, 0, 0]"] ;
233 -> 235 ;
236 [label="Hormonal Contraceptives (years) <= 0.026\ngini = 0.744\nsamples = 11\nvalue = [4, 3, 1, 2, 1]"] ;
0 -> 236 [labeldistance=2.5, labelangle=-45, headlabel="False"] ;
237 [label="Dx:HPV <= 0.5\ngini = 0.48\nsamples = 5\nvalue = [3, 0, 0, 2, 0]"] ;
236 -> 237 ;
238 [label="gini = 0.0\nsamples = 2\nvalue = [2, 0, 0, 0, 0]"] ;
237 -> 238 ;
239 [label="IUD (years) <= 0.079\ngini = 0.444\nsamples = 3\nvalue = [1, 0, 0, 2, 0]"] ;
237 -> 239 ;
240 [label="gini = 0.0\nsamples = 1\nvalue = [1, 0, 0, 0, 0]"] ;
239 -> 240 ;
241 [label="gini = 0.0\nsamples = 2\nvalue = [0, 0, 0, 2, 0]"] ;
239 -> 241 ;
242 [label="First sexual intercourse <= 0.386\ngini = 0.667\nsamples = 6\nvalue = [1, 3, 1, 0, 1]"] ;
236 -> 242 ;
243 [label="Age <= 0.218\ngini = 0.5\nsamples = 2\nvalue = [0, 0, 1, 0, 1]"] ;
242 -> 243 ;
244 [label="gini = 0.0\nsamples = 1\nvalue = [0, 0, 0, 0, 1]"] ;
243 -> 244 ;
245 [label="gini = 0.0\nsamples = 1\nvalue = [0, 0, 1, 0, 0]"] ;
243 -> 245 ;
246 [label="STDs (number) <= 0.125\ngini = 0.375\nsamples = 4\nvalue = [1, 3, 0, 0, 0]"] ;
242 -> 246 ;
247 [label="gini = 0.0\nsamples = 3\nvalue = [0, 3, 0, 0, 0]"] ;
246 -> 247 ;
248 [label="gini = 0.0\nsamples = 1\nvalue = [1, 0, 0, 0, 0]"] ;
246 -> 248 ;
}
